{
  "kind": "xgboost",
  "horizon": 1,
  "trainedAt": "2026-05-17T00:36:43.863480+00:00",
  "features": [
    "year",
    "auction_median_12mo",
    "auction_count_12mo",
    "auction_count_36mo",
    "reserve_met_rate_12mo",
    "price_momentum_1mo",
    "mileage_median_sold",
    "community_score",
    "brand_avg_cagr_5yr",
    "brand_auction_volume_rank",
    "brand_appreciation_tier_encoded",
    "correlated_sp500_12mo",
    "correlated_gold_12mo"
  ],
  "modelArtifact": {
    "learner": {
      "attributes": {
        "scikit_learn": "{\"_estimator_type\": \"regressor\"}"
      },
      "feature_names": [
        "year",
        "auction_median_12mo",
        "auction_count_12mo",
        "auction_count_36mo",
        "reserve_met_rate_12mo",
        "price_momentum_1mo",
        "mileage_median_sold",
        "community_score",
        "brand_avg_cagr_5yr",
        "brand_auction_volume_rank",
        "brand_appreciation_tier_encoded",
        "correlated_sp500_12mo",
        "correlated_gold_12mo"
      ],
      "feature_types": [
        "int",
        "float",
        "int",
        "int",
        "float",
        "float",
        "int",
        "float",
        "float",
        "float",
        "int",
        "float",
        "float"
      ],
      "gradient_booster": {
        "model": {
          "cats": {
            "enc": [],
            "feature_segments": [],
            "sorted_idx": []
          },
          "gbtree_model_param": {
            "num_parallel_tree": "1",
            "num_trees": "200"
          },
          "iteration_indptr": [
            0,
            1,
            2,
            3,
            4,
            5,
            6,
            7,
            8,
            9,
            10,
            11,
            12,
            13,
            14,
            15,
            16,
            17,
            18,
            19,
            20,
            21,
            22,
            23,
            24,
            25,
            26,
            27,
            28,
            29,
            30,
            31,
            32,
            33,
            34,
            35,
            36,
            37,
            38,
            39,
            40,
            41,
            42,
            43,
            44,
            45,
            46,
            47,
            48,
            49,
            50,
            51,
            52,
            53,
            54,
            55,
            56,
            57,
            58,
            59,
            60,
            61,
            62,
            63,
            64,
            65,
            66,
            67,
            68,
            69,
            70,
            71,
            72,
            73,
            74,
            75,
            76,
            77,
            78,
            79,
            80,
            81,
            82,
            83,
            84,
            85,
            86,
            87,
            88,
            89,
            90,
            91,
            92,
            93,
            94,
            95,
            96,
            97,
            98,
            99,
            100,
            101,
            102,
            103,
            104,
            105,
            106,
            107,
            108,
            109,
            110,
            111,
            112,
            113,
            114,
            115,
            116,
            117,
            118,
            119,
            120,
            121,
            122,
            123,
            124,
            125,
            126,
            127,
            128,
            129,
            130,
            131,
            132,
            133,
            134,
            135,
            136,
            137,
            138,
            139,
            140,
            141,
            142,
            143,
            144,
            145,
            146,
            147,
            148,
            149,
            150,
            151,
            152,
            153,
            154,
            155,
            156,
            157,
            158,
            159,
            160,
            161,
            162,
            163,
            164,
            165,
            166,
            167,
            168,
            169,
            170,
            171,
            172,
            173,
            174,
            175,
            176,
            177,
            178,
            179,
            180,
            181,
            182,
            183,
            184,
            185,
            186,
            187,
            188,
            189,
            190,
            191,
            192,
            193,
            194,
            195,
            196,
            197,
            198,
            199,
            200
          ],
          "tree_info": [
            0,
            0,
            0,
            0,
            0,
            0,
            0,
            0,
            0,
            0,
            0,
            0,
            0,
            0,
            0,
            0,
            0,
            0,
            0,
            0,
            0,
            0,
            0,
            0,
            0,
            0,
            0,
            0,
            0,
            0,
            0,
            0,
            0,
            0,
            0,
            0,
            0,
            0,
            0,
            0,
            0,
            0,
            0,
            0,
            0,
            0,
            0,
            0,
            0,
            0,
            0,
            0,
            0,
            0,
            0,
            0,
            0,
            0,
            0,
            0,
            0,
            0,
            0,
            0,
            0,
            0,
            0,
            0,
            0,
            0,
            0,
            0,
            0,
            0,
            0,
            0,
            0,
            0,
            0,
            0,
            0,
            0,
            0,
            0,
            0,
            0,
            0,
            0,
            0,
            0,
            0,
            0,
            0,
            0,
            0,
            0,
            0,
            0,
            0,
            0,
            0,
            0,
            0,
            0,
            0,
            0,
            0,
            0,
            0,
            0,
            0,
            0,
            0,
            0,
            0,
            0,
            0,
            0,
            0,
            0,
            0,
            0,
            0,
            0,
            0,
            0,
            0,
            0,
            0,
            0,
            0,
            0,
            0,
            0,
            0,
            0,
            0,
            0,
            0,
            0,
            0,
            0,
            0,
            0,
            0,
            0,
            0,
            0,
            0,
            0,
            0,
            0,
            0,
            0,
            0,
            0,
            0,
            0,
            0,
            0,
            0,
            0,
            0,
            0,
            0,
            0,
            0,
            0,
            0,
            0,
            0,
            0,
            0,
            0,
            0,
            0,
            0,
            0,
            0,
            0,
            0,
            0,
            0,
            0,
            0,
            0,
            0,
            0,
            0,
            0,
            0,
            0,
            0,
            0,
            0,
            0,
            0,
            0,
            0,
            0
          ],
          "trees": [
            {
              "base_weights": [
                -9.617199e-10,
                -0.026335457,
                0.37747487,
                -2.046077e-05,
                -0.18614575,
                0.00043936455,
                0.027871251,
                -0.014279296,
                0.007776378
              ],
              "categories": [],
              "categories_nodes": [],
              "categories_segments": [],
              "categories_sizes": [],
              "default_left": [
                0,
                0,
                0,
                0,
                0,
                0,
                0,
                0,
                0
              ],
              "id": 0,
              "left_children": [
                1,
                3,
                5,
                -1,
                7,
                -1,
                -1,
                -1,
                -1
              ],
              "loss_changes": [
                0.45728478,
                0.17808488,
                0.19413787,
                0.0,
                0.24827276,
                0.0,
                0.0,
                0.0,
                0.0
              ],
              "parents": [
                2147483647,
                0,
                0,
                1,
                1,
                2,
                2,
                4,
                4
              ],
              "right_children": [
                2,
                4,
                6,
                -1,
                8,
                -1,
                -1,
                -1,
                -1
              ],
              "split_conditions": [
                78000.0,
                20.0,
                1969.0,
                -2.046077e-05,
                90.0,
                0.00043936455,
                0.027871251,
                -0.014279296,
                0.007776378
              ],
              "split_indices": [
                1,
                2,
                0,
                0,
                2,
                0,
                0,
                0,
                0
              ],
              "split_type": [
                0,
                0,
                0,
                0,
                0,
                0,
                0,
                0,
                0
              ],
              "sum_hessian": [
                44.0,
                42.0,
                2.0,
                37.0,
                5.0,
                1.0,
                1.0,
                4.0,
                1.0
              ],
              "tree_param": {
                "num_deleted": "0",
                "num_feature": "13",
                "num_nodes": "9",
                "size_leaf_vector": "1"
              }
            },
            {
              "base_weights": [
                0.00048416076,
                -0.02517039,
                0.368038,
                -0.012531242,
                -0.008059811,
                0.00042838044,
                0.027174471,
                0.00030055176,
                -0.008561858,
                -0.000373406,
                0.007581969
              ],
              "categories": [],
              "categories_nodes": [],
              "categories_segments": [],
              "categories_sizes": [],
              "default_left": [
                0,
                0,
                0,
                0,
                0,
                0,
                0,
                0,
                0,
                0,
                0
              ],
              "id": 1,
              "left_children": [
                1,
                3,
                5,
                -1,
                7,
                -1,
                -1,
                9,
                -1,
                -1,
                -1
              ],
              "loss_changes": [
                0.43358794,
                0.16385923,
                0.18455234,
                0.0,
                0.05598456,
                0.0,
                0.0,
                0.048160527,
                0.0,
                0.0,
                0.0
              ],
              "parents": [
                2147483647,
                0,
                0,
                1,
                1,
                2,
                2,
                4,
                4,
                7,
                7
              ],
              "right_children": [
                2,
                4,
                6,
                -1,
                8,
                -1,
                -1,
                10,
                -1,
                -1,
                -1
              ],
              "split_conditions": [
                78000.0,
                -0.021978023,
                1969.0,
                -0.012531242,
                0.061662197,
                0.00042838044,
                0.027174471,
                33.0,
                -0.008561858,
                -0.000373406,
                0.007581969
              ],
              "split_indices": [
                1,
                5,
                0,
                0,
                5,
                0,
                0,
                2,
                0,
                0,
                0
              ],
              "split_type": [
                0,
                0,
                0,
                0,
                0,
                0,
                0,
                0,
                0,
                0,
                0
              ],
              "sum_hessian": [
                44.0,
                42.0,
                2.0,
                2.0,
                40.0,
                1.0,
                1.0,
                39.0,
                1.0,
                38.0,
                1.0
              ],
              "tree_param": {
                "num_deleted": "0",
                "num_feature": "13",
                "num_nodes": "11",
                "size_leaf_vector": "1"
              }
            },
            {
              "base_weights": [
                0.00076480507,
                -0.024234768,
                0.3588371,
                -1.2856754e-06,
                -0.17351966,
                0.00041767093,
                0.026495112,
                -0.013368147,
                0.007392419
              ],
              "categories": [],
              "categories_nodes": [],
              "categories_segments": [],
              "categories_sizes": [],
              "default_left": [
                0,
                0,
                0,
                0,
                0,
                0,
                0,
                0,
                0
              ],
              "id": 2,
              "left_children": [
                1,
                3,
                5,
                -1,
                7,
                -1,
                -1,
                -1,
                -1
              ],
              "loss_changes": [
                0.4115208,
                0.15539952,
                0.17544004,
                0.0,
                0.22047855,
                0.0,
                0.0,
                0.0,
                0.0
              ],
              "parents": [
                2147483647,
                0,
                0,
                1,
                1,
                2,
                2,
                4,
                4
              ],
              "right_children": [
                2,
                4,
                6,
                -1,
                8,
                -1,
                -1,
                -1,
                -1
              ],
              "split_conditions": [
                78000.0,
                20.0,
                1969.0,
                -1.2856754e-06,
                90.0,
                0.00041767093,
                0.026495112,
                -0.013368147,
                0.007392419
              ],
              "split_indices": [
                1,
                2,
                0,
                0,
                2,
                0,
                0,
                0,
                0
              ],
              "split_type": [
                0,
                0,
                0,
                0,
                0,
                0,
                0,
                0,
                0
              ],
              "sum_hessian": [
                44.0,
                42.0,
                2.0,
                37.0,
                5.0,
                1.0,
                1.0,
                4.0,
                1.0
              ],
              "tree_param": {
                "num_deleted": "0",
                "num_feature": "13",
                "num_nodes": "9",
                "size_leaf_vector": "1"
              }
            },
            {
              "base_weights": [
                0.0011918031,
                -0.02316203,
                0.34986612,
                -0.01166793,
                -0.007216865,
                0.00040722918,
                0.025832731,
                0.00061632076,
                -0.008013608,
                -0.00033801477,
                0.0072076092
              ],
              "categories": [],
              "categories_nodes": [],
              "categories_segments": [],
              "categories_sizes": [],
              "default_left": [
                0,
                0,
                0,
                0,
                0,
                0,
                0,
                0,
                0,
                0,
                0
              ],
              "id": 3,
              "left_children": [
                1,
                3,
                5,
                -1,
                7,
                -1,
                -1,
                9,
                -1,
                -1,
                -1
              ],
              "loss_changes": [
                0.39022365,
                0.14243549,
                0.1667777,
                0.0,
                0.049254112,
                0.0,
                0.0,
                0.043326866,
                0.0,
                0.0,
                0.0
              ],
              "parents": [
                2147483647,
                0,
                0,
                1,
                1,
                2,
                2,
                4,
                4,
                7,
                7
              ],
              "right_children": [
                2,
                4,
                6,
                -1,
                8,
                -1,
                -1,
                10,
                -1,
                -1,
                -1
              ],
              "split_conditions": [
                78000.0,
                -0.021978023,
                1969.0,
                -0.01166793,
                0.061662197,
                0.00040722918,
                0.025832731,
                33.0,
                -0.008013608,
                -0.00033801477,
                0.0072076092
              ],
              "split_indices": [
                1,
                5,
                0,
                0,
                5,
                0,
                0,
                2,
                0,
                0,
                0
              ],
              "split_type": [
                0,
                0,
                0,
                0,
                0,
                0,
                0,
                0,
                0,
                0,
                0
              ],
              "sum_hessian": [
                44.0,
                42.0,
                2.0,
                2.0,
                40.0,
                1.0,
                1.0,
                39.0,
                1.0,
                38.0,
                1.0
              ],
              "tree_param": {
                "num_deleted": "0",
                "num_feature": "13",
                "num_nodes": "11",
                "size_leaf_vector": "1"
              }
            },
            {
              "base_weights": [
                0.0014306145,
                -0.02230188,
                0.3411195,
                1.52328985e-05,
                -0.16175964,
                0.00039704842,
                0.025186915,
                -0.012516546,
                0.007027419
              ],
              "categories": [],
              "categories_nodes": [],
              "categories_segments": [],
              "categories_sizes": [],
              "default_left": [
                0,
                0,
                0,
                0,
                0,
                0,
                0,
                0,
                0
              ],
              "id": 4,
              "left_children": [
                1,
                3,
                5,
                -1,
                7,
                -1,
                -1,
                -1,
                -1
              ],
              "loss_changes": [
                0.37038255,
                0.13561356,
                0.15854308,
                0.0,
                0.19583844,
                0.0,
                0.0,
                0.0,
                0.0
              ],
              "parents": [
                2147483647,
                0,
                0,
                1,
                1,
                2,
                2,
                4,
                4
              ],
              "right_children": [
                2,
                4,
                6,
                -1,
                8,
                -1,
                -1,
                -1,
                -1
              ],
              "split_conditions": [
                78000.0,
                20.0,
                1969.0,
                1.52328985e-05,
                90.0,
                0.00039704842,
                0.025186915,
                -0.012516546,
                0.007027419
              ],
              "split_indices": [
                1,
                2,
                0,
                0,
                2,
                0,
                0,
                0,
                0
              ],
              "split_type": [
                0,
                0,
                0,
                0,
                0,
                0,
                0,
                0,
                0
              ],
              "sum_hessian": [
                44.0,
                42.0,
                2.0,
                37.0,
                5.0,
                1.0,
                1.0,
                4.0,
                1.0
              ],
              "tree_param": {
                "num_deleted": "0",
                "num_feature": "13",
                "num_nodes": "9",
                "size_leaf_vector": "1"
              }
            },
            {
              "base_weights": [
                0.0018059721,
                -0.021314088,
                0.3325915,
                1.4491298e-05,
                -0.15458652,
                0.00038712224,
                0.02455724,
                -0.012015885,
                0.0068517327
              ],
              "categories": [],
              "categories_nodes": [],
              "categories_segments": [],
              "categories_sizes": [],
              "default_left": [
                0,
                0,
                0,
                0,
                0,
                0,
                0,
                0,
                0
              ],
              "id": 5,
              "left_children": [
                1,
                3,
                5,
                -1,
                7,
                -1,
                -1,
                -1,
                -1
              ],
              "loss_changes": [
                0.35123906,
                0.12385067,
                0.150715,
                0.0,
                0.182938,
                0.0,
                0.0,
                0.0,
                0.0
              ],
              "parents": [
                2147483647,
                0,
                0,
                1,
                1,
                2,
                2,
                4,
                4
              ],
              "right_children": [
                2,
                4,
                6,
                -1,
                8,
                -1,
                -1,
                -1,
                -1
              ],
              "split_conditions": [
                78000.0,
                20.0,
                1969.0,
                1.4491298e-05,
                90.0,
                0.00038712224,
                0.02455724,
                -0.012015885,
                0.0068517327
              ],
              "split_indices": [
                1,
                2,
                0,
                0,
                2,
                0,
                0,
                0,
                0
              ],
              "split_type": [
                0,
                0,
                0,
                0,
                0,
                0,
                0,
                0,
                0
              ],
              "sum_hessian": [
                44.0,
                42.0,
                2.0,
                37.0,
                5.0,
                1.0,
                1.0,
                4.0,
                1.0
              ],
              "tree_param": {
                "num_deleted": "0",
                "num_feature": "13",
                "num_nodes": "9",
                "size_leaf_vector": "1"
              }
            },
            {
              "base_weights": [
                0.0021555563,
                -0.020368142,
                0.32427672,
                -0.010461251,
                -0.0060525625,
                0.00037744417,
                0.02394331,
                -0.012884316,
                0.0066804397,
                1.3785801e-05,
                -0.0087641645
              ],
              "categories": [],
              "categories_nodes": [],
              "categories_segments": [],
              "categories_sizes": [],
              "default_left": [
                0,
                0,
                0,
                0,
                0,
                0,
                0,
                0,
                0,
                0,
                0
              ],
              "id": 6,
              "left_children": [
                1,
                3,
                5,
                -1,
                7,
                -1,
                -1,
                9,
                -1,
                -1,
                -1
              ],
              "loss_changes": [
                0.33309612,
                0.11498827,
                0.14327344,
                0.0,
                0.040840868,
                0.0,
                0.0,
                0.085535355,
                0.0,
                0.0,
                0.0
              ],
              "parents": [
                2147483647,
                0,
                0,
                1,
                1,
                2,
                2,
                4,
                4,
                7,
                7
              ],
              "right_children": [
                2,
                4,
                6,
                -1,
                8,
                -1,
                -1,
                10,
                -1,
                -1,
                -1
              ],
              "split_conditions": [
                78000.0,
                -0.021978023,
                1969.0,
                -0.010461251,
                54.0,
                0.00037744417,
                0.02394331,
                20.0,
                0.0066804397,
                1.3785801e-05,
                -0.0087641645
              ],
              "split_indices": [
                1,
                5,
                0,
                0,
                2,
                0,
                0,
                2,
                0,
                0,
                0
              ],
              "split_type": [
                0,
                0,
                0,
                0,
                0,
                0,
                0,
                0,
                0,
                0,
                0
              ],
              "sum_hessian": [
                44.0,
                42.0,
                2.0,
                2.0,
                40.0,
                1.0,
                1.0,
                39.0,
                1.0,
                37.0,
                2.0
              ],
              "tree_param": {
                "num_deleted": "0",
                "num_feature": "13",
                "num_nodes": "11",
                "size_leaf_vector": "1"
              }
            },
            {
              "base_weights": [
                0.0023097699,
                -0.019641157,
                0.3161698,
                -0.010112543,
                -0.00580042,
                0.0003680081,
                0.023344727,
                -0.012458859,
                0.006513429,
                1.3114649e-05,
                -0.008472024
              ],
              "categories": [],
              "categories_nodes": [],
              "categories_segments": [],
              "categories_sizes": [],
              "default_left": [
                0,
                0,
                0,
                0,
                0,
                0,
                0,
                0,
                0,
                0,
                0
              ],
              "id": 7,
              "left_children": [
                1,
                3,
                5,
                -1,
                7,
                -1,
                -1,
                9,
                -1,
                -1,
                -1
              ],
              "loss_changes": [
                0.31623825,
                0.107507326,
                0.13619933,
                0.0,
                0.03876929,
                0.0,
                0.0,
                0.07992394,
                0.0,
                0.0,
                0.0
              ],
              "parents": [
                2147483647,
                0,
                0,
                1,
                1,
                2,
                2,
                4,
                4,
                7,
                7
              ],
              "right_children": [
                2,
                4,
                6,
                -1,
                8,
                -1,
                -1,
                10,
                -1,
                -1,
                -1
              ],
              "split_conditions": [
                78000.0,
                -0.021978023,
                1969.0,
                -0.010112543,
                54.0,
                0.0003680081,
                0.023344727,
                20.0,
                0.006513429,
                1.3114649e-05,
                -0.008472024
              ],
              "split_indices": [
                1,
                5,
                0,
                0,
                2,
                0,
                0,
                2,
                0,
                0,
                0
              ],
              "split_type": [
                0,
                0,
                0,
                0,
                0,
                0,
                0,
                0,
                0,
                0,
                0
              ],
              "sum_hessian": [
                44.0,
                42.0,
                2.0,
                2.0,
                40.0,
                1.0,
                1.0,
                39.0,
                1.0,
                37.0,
                2.0
              ],
              "tree_param": {
                "num_deleted": "0",
                "num_feature": "13",
                "num_nodes": "11",
                "size_leaf_vector": "1"
              }
            },
            {
              "base_weights": [
                0.002453276,
                -0.018939517,
                0.30826557,
                -0.009775458,
                -0.0055578495,
                0.00035880788,
                0.02276111,
                -0.012047389,
                0.006350593,
                1.2476172e-05,
                -0.008189624
              ],
              "categories": [],
              "categories_nodes": [],
              "categories_segments": [],
              "categories_sizes": [],
              "default_left": [
                0,
                0,
                0,
                0,
                0,
                0,
                0,
                0,
                0,
                0,
                0
              ],
              "id": 8,
              "left_children": [
                1,
                3,
                5,
                -1,
                7,
                -1,
                -1,
                9,
                -1,
                -1,
                -1
              ],
              "loss_changes": [
                0.30023646,
                0.100513645,
                0.12947452,
                0.0,
                0.036803134,
                0.0,
                0.0,
                0.074680716,
                0.0,
                0.0,
                0.0
              ],
              "parents": [
                2147483647,
                0,
                0,
                1,
                1,
                2,
                2,
                4,
                4,
                7,
                7
              ],
              "right_children": [
                2,
                4,
                6,
                -1,
                8,
                -1,
                -1,
                10,
                -1,
                -1,
                -1
              ],
              "split_conditions": [
                78000.0,
                -0.021978023,
                1969.0,
                -0.009775458,
                54.0,
                0.00035880788,
                0.02276111,
                20.0,
                0.006350593,
                1.2476172e-05,
                -0.008189624
              ],
              "split_indices": [
                1,
                5,
                0,
                0,
                2,
                0,
                0,
                2,
                0,
                0,
                0
              ],
              "split_type": [
                0,
                0,
                0,
                0,
                0,
                0,
                0,
                0,
                0,
                0,
                0
              ],
              "sum_hessian": [
                44.0,
                42.0,
                2.0,
                2.0,
                40.0,
                1.0,
                1.0,
                39.0,
                1.0,
                37.0,
                2.0
              ],
              "tree_param": {
                "num_deleted": "0",
                "num_feature": "13",
                "num_nodes": "11",
                "size_leaf_vector": "1"
              }
            },
            {
              "base_weights": [
                0.0025865652,
                -0.018262357,
                0.30055892,
                -0.009449609,
                -0.0053245076,
                0.00034983768,
                0.022192081,
                -0.011649448,
                0.0061918283,
                1.1868779e-05,
                -0.007916637
              ],
              "categories": [],
              "categories_nodes": [],
              "categories_segments": [],
              "categories_sizes": [],
              "default_left": [
                0,
                0,
                0,
                0,
                0,
                0,
                0,
                0,
                0,
                0,
                0
              ],
              "id": 9,
              "left_children": [
                1,
                3,
                5,
                -1,
                7,
                -1,
                -1,
                9,
                -1,
                -1,
                -1
              ],
              "loss_changes": [
                0.28504702,
                0.09397541,
                0.123081684,
                0.0,
                0.03493701,
                0.0,
                0.0,
                0.06978151,
                0.0,
                0.0,
                0.0
              ],
              "parents": [
                2147483647,
                0,
                0,
                1,
                1,
                2,
                2,
                4,
                4,
                7,
                7
              ],
              "right_children": [
                2,
                4,
                6,
                -1,
                8,
                -1,
                -1,
                10,
                -1,
                -1,
                -1
              ],
              "split_conditions": [
                78000.0,
                -0.021978023,
                1969.0,
                -0.009449609,
                54.0,
                0.00034983768,
                0.022192081,
                20.0,
                0.0061918283,
                1.1868779e-05,
                -0.007916637
              ],
              "split_indices": [
                1,
                5,
                0,
                0,
                2,
                0,
                0,
                2,
                0,
                0,
                0
              ],
              "split_type": [
                0,
                0,
                0,
                0,
                0,
                0,
                0,
                0,
                0,
                0,
                0
              ],
              "sum_hessian": [
                44.0,
                42.0,
                2.0,
                2.0,
                40.0,
                1.0,
                1.0,
                39.0,
                1.0,
                37.0,
                2.0
              ],
              "tree_param": {
                "num_deleted": "0",
                "num_feature": "13",
                "num_nodes": "11",
                "size_leaf_vector": "1"
              }
            },
            {
              "base_weights": [
                0.002710111,
                -0.017608833,
                0.29304495,
                -0.009134622,
                -0.005100061,
                0.00034109174,
                0.02163728,
                -0.011264595,
                0.0060370327,
                1.1290957e-05,
                -0.0076527493
              ],
              "categories": [],
              "categories_nodes": [],
              "categories_segments": [],
              "categories_sizes": [],
              "default_left": [
                0,
                0,
                0,
                0,
                0,
                0,
                0,
                0,
                0,
                0,
                0
              ],
              "id": 10,
              "left_children": [
                1,
                3,
                5,
                -1,
                7,
                -1,
                -1,
                9,
                -1,
                -1,
                -1
              ],
              "loss_changes": [
                0.27062857,
                0.08786297,
                0.117004514,
                0.0,
                0.03316582,
                0.0,
                0.0,
                0.06520378,
                0.0,
                0.0,
                0.0
              ],
              "parents": [
                2147483647,
                0,
                0,
                1,
                1,
                2,
                2,
                4,
                4,
                7,
                7
              ],
              "right_children": [
                2,
                4,
                6,
                -1,
                8,
                -1,
                -1,
                10,
                -1,
                -1,
                -1
              ],
              "split_conditions": [
                78000.0,
                -0.021978023,
                1969.0,
                -0.009134622,
                54.0,
                0.00034109174,
                0.02163728,
                20.0,
                0.0060370327,
                1.1290957e-05,
                -0.0076527493
              ],
              "split_indices": [
                1,
                5,
                0,
                0,
                2,
                0,
                0,
                2,
                0,
                0,
                0
              ],
              "split_type": [
                0,
                0,
                0,
                0,
                0,
                0,
                0,
                0,
                0,
                0,
                0
              ],
              "sum_hessian": [
                44.0,
                42.0,
                2.0,
                2.0,
                40.0,
                1.0,
                1.0,
                39.0,
                1.0,
                37.0,
                2.0
              ],
              "tree_param": {
                "num_deleted": "0",
                "num_feature": "13",
                "num_nodes": "11",
                "size_leaf_vector": "1"
              }
            },
            {
              "base_weights": [
                0.0028243691,
                -0.016978137,
                0.28571883,
                -0.008830135,
                -0.00488419,
                0.00033256444,
                0.021096347,
                -0.010892401,
                0.005886107,
                1.0741266e-05,
                -0.007397657
              ],
              "categories": [],
              "categories_nodes": [],
              "categories_segments": [],
              "categories_sizes": [],
              "default_left": [
                0,
                0,
                0,
                0,
                0,
                0,
                0,
                0,
                0,
                0,
                0
              ],
              "id": 11,
              "left_children": [
                1,
                3,
                5,
                -1,
                7,
                -1,
                -1,
                9,
                -1,
                -1,
                -1
              ],
              "loss_changes": [
                0.25694183,
                0.082148544,
                0.11122744,
                0.0,
                0.031484712,
                0.0,
                0.0,
                0.060926367,
                0.0,
                0.0,
                0.0
              ],
              "parents": [
                2147483647,
                0,
                0,
                1,
                1,
                2,
                2,
                4,
                4,
                7,
                7
              ],
              "right_children": [
                2,
                4,
                6,
                -1,
                8,
                -1,
                -1,
                10,
                -1,
                -1,
                -1
              ],
              "split_conditions": [
                78000.0,
                -0.021978023,
                1969.0,
                -0.008830135,
                54.0,
                0.00033256444,
                0.021096347,
                20.0,
                0.005886107,
                1.0741266e-05,
                -0.007397657
              ],
              "split_indices": [
                1,
                5,
                0,
                0,
                2,
                0,
                0,
                2,
                0,
                0,
                0
              ],
              "split_type": [
                0,
                0,
                0,
                0,
                0,
                0,
                0,
                0,
                0,
                0,
                0
              ],
              "sum_hessian": [
                44.0,
                42.0,
                2.0,
                2.0,
                40.0,
                1.0,
                1.0,
                39.0,
                1.0,
                37.0,
                2.0
              ],
              "tree_param": {
                "num_deleted": "0",
                "num_feature": "13",
                "num_nodes": "11",
                "size_leaf_vector": "1"
              }
            },
            {
              "base_weights": [
                0.0029297716,
                -0.016369484,
                0.27857584,
                -0.008535798,
                -0.004676586,
                0.00032425034,
                0.020568939,
                -0.010532455,
                0.0057389545,
                1.0218336e-05,
                -0.0071510687
              ],
              "categories": [],
              "categories_nodes": [],
              "categories_segments": [],
              "categories_sizes": [],
              "default_left": [
                0,
                0,
                0,
                0,
                0,
                0,
                0,
                0,
                0,
                0,
                0
              ],
              "id": 12,
              "left_children": [
                1,
                3,
                5,
                -1,
                7,
                -1,
                -1,
                9,
                -1,
                -1,
                -1
              ],
              "loss_changes": [
                0.24394955,
                0.07680621,
                0.105735555,
                0.0,
                0.029889092,
                0.0,
                0.0,
                0.05692962,
                0.0,
                0.0,
                0.0
              ],
              "parents": [
                2147483647,
                0,
                0,
                1,
                1,
                2,
                2,
                4,
                4,
                7,
                7
              ],
              "right_children": [
                2,
                4,
                6,
                -1,
                8,
                -1,
                -1,
                10,
                -1,
                -1,
                -1
              ],
              "split_conditions": [
                78000.0,
                -0.021978023,
                1969.0,
                -0.008535798,
                54.0,
                0.00032425034,
                0.020568939,
                20.0,
                0.0057389545,
                1.0218336e-05,
                -0.0071510687
              ],
              "split_indices": [
                1,
                5,
                0,
                0,
                2,
                0,
                0,
                2,
                0,
                0,
                0
              ],
              "split_type": [
                0,
                0,
                0,
                0,
                0,
                0,
                0,
                0,
                0,
                0,
                0
              ],
              "sum_hessian": [
                44.0,
                42.0,
                2.0,
                2.0,
                40.0,
                1.0,
                1.0,
                39.0,
                1.0,
                37.0,
                2.0
              ],
              "tree_param": {
                "num_deleted": "0",
                "num_feature": "13",
                "num_nodes": "11",
                "size_leaf_vector": "1"
              }
            },
            {
              "base_weights": [
                0.0030267392,
                -0.01578212,
                0.27161145,
                -0.00825127,
                -0.004476949,
                0.00031614405,
                0.020054717,
                -0.010184353,
                0.0055954806,
                9.720864e-06,
                -0.0069127004
              ],
              "categories": [],
              "categories_nodes": [],
              "categories_segments": [],
              "categories_sizes": [],
              "default_left": [
                0,
                0,
                0,
                0,
                0,
                0,
                0,
                0,
                0,
                0,
                0
              ],
              "id": 13,
              "left_children": [
                1,
                3,
                5,
                -1,
                7,
                -1,
                -1,
                9,
                -1,
                -1,
                -1
              ],
              "loss_changes": [
                0.23161635,
                0.07181168,
                0.10051489,
                0.0,
                0.028374597,
                0.0,
                0.0,
                0.0531951,
                0.0,
                0.0,
                0.0
              ],
              "parents": [
                2147483647,
                0,
                0,
                1,
                1,
                2,
                2,
                4,
                4,
                7,
                7
              ],
              "right_children": [
                2,
                4,
                6,
                -1,
                8,
                -1,
                -1,
                10,
                -1,
                -1,
                -1
              ],
              "split_conditions": [
                78000.0,
                -0.021978023,
                1969.0,
                -0.00825127,
                54.0,
                0.00031614405,
                0.020054717,
                20.0,
                0.0055954806,
                9.720864e-06,
                -0.0069127004
              ],
              "split_indices": [
                1,
                5,
                0,
                0,
                2,
                0,
                0,
                2,
                0,
                0,
                0
              ],
              "split_type": [
                0,
                0,
                0,
                0,
                0,
                0,
                0,
                0,
                0,
                0,
                0
              ],
              "sum_hessian": [
                44.0,
                42.0,
                2.0,
                2.0,
                40.0,
                1.0,
                1.0,
                39.0,
                1.0,
                37.0,
                2.0
              ],
              "tree_param": {
                "num_deleted": "0",
                "num_feature": "13",
                "num_nodes": "11",
                "size_leaf_vector": "1"
              }
            },
            {
              "base_weights": [
                0.0031156703,
                -0.01521531,
                0.26482117,
                -0.007976228,
                -0.004284992,
                0.0003082405,
                0.019553347,
                -0.00984771,
                0.005455593,
                9.247611e-06,
                -0.0066822763
              ],
              "categories": [],
              "categories_nodes": [],
              "categories_segments": [],
              "categories_sizes": [],
              "default_left": [
                0,
                0,
                0,
                0,
                0,
                0,
                0,
                0,
                0,
                0,
                0
              ],
              "id": 14,
              "left_children": [
                1,
                3,
                5,
                -1,
                7,
                -1,
                -1,
                9,
                -1,
                -1,
                -1
              ],
              "loss_changes": [
                0.21990867,
                0.067142315,
                0.09555194,
                0.0,
                0.026937086,
                0.0,
                0.0,
                0.049705584,
                0.0,
                0.0,
                0.0
              ],
              "parents": [
                2147483647,
                0,
                0,
                1,
                1,
                2,
                2,
                4,
                4,
                7,
                7
              ],
              "right_children": [
                2,
                4,
                6,
                -1,
                8,
                -1,
                -1,
                10,
                -1,
                -1,
                -1
              ],
              "split_conditions": [
                78000.0,
                -0.021978023,
                1969.0,
                -0.007976228,
                54.0,
                0.0003082405,
                0.019553347,
                20.0,
                0.005455593,
                9.247611e-06,
                -0.0066822763
              ],
              "split_indices": [
                1,
                5,
                0,
                0,
                2,
                0,
                0,
                2,
                0,
                0,
                0
              ],
              "split_type": [
                0,
                0,
                0,
                0,
                0,
                0,
                0,
                0,
                0,
                0,
                0
              ],
              "sum_hessian": [
                44.0,
                42.0,
                2.0,
                2.0,
                40.0,
                1.0,
                1.0,
                39.0,
                1.0,
                37.0,
                2.0
              ],
              "tree_param": {
                "num_deleted": "0",
                "num_feature": "13",
                "num_nodes": "11",
                "size_leaf_vector": "1"
              }
            },
            {
              "base_weights": [
                0.003196952,
                -0.01466835,
                0.25820065,
                -0.0077103535,
                -0.0041004354,
                0.00030053448,
                0.019064514,
                -0.00952215,
                0.0053192037,
                8.7973995e-06,
                -0.0064595337
              ],
              "categories": [],
              "categories_nodes": [],
              "categories_segments": [],
              "categories_sizes": [],
              "default_left": [
                0,
                0,
                0,
                0,
                0,
                0,
                0,
                0,
                0,
                0,
                0
              ],
              "id": 15,
              "left_children": [
                1,
                3,
                5,
                -1,
                7,
                -1,
                -1,
                9,
                -1,
                -1,
                -1
              ],
              "loss_changes": [
                0.20879467,
                0.062776916,
                0.090834096,
                0.0,
                0.025572637,
                0.0,
                0.0,
                0.046445012,
                0.0,
                0.0,
                0.0
              ],
              "parents": [
                2147483647,
                0,
                0,
                1,
                1,
                2,
                2,
                4,
                4,
                7,
                7
              ],
              "right_children": [
                2,
                4,
                6,
                -1,
                8,
                -1,
                -1,
                10,
                -1,
                -1,
                -1
              ],
              "split_conditions": [
                78000.0,
                -0.021978023,
                1969.0,
                -0.0077103535,
                54.0,
                0.00030053448,
                0.019064514,
                20.0,
                0.0053192037,
                8.7973995e-06,
                -0.0064595337
              ],
              "split_indices": [
                1,
                5,
                0,
                0,
                2,
                0,
                0,
                2,
                0,
                0,
                0
              ],
              "split_type": [
                0,
                0,
                0,
                0,
                0,
                0,
                0,
                0,
                0,
                0,
                0
              ],
              "sum_hessian": [
                44.0,
                42.0,
                2.0,
                2.0,
                40.0,
                1.0,
                1.0,
                39.0,
                1.0,
                37.0,
                2.0
              ],
              "tree_param": {
                "num_deleted": "0",
                "num_feature": "13",
                "num_nodes": "11",
                "size_leaf_vector": "1"
              }
            },
            {
              "base_weights": [
                0.0032709525,
                -0.014140558,
                0.2517456,
                -0.007453342,
                -0.0039230124,
                0.0002930211,
                0.0185879,
                -0.009207311,
                0.0051862234,
                8.369104e-06,
                -0.0062442156
              ],
              "categories": [],
              "categories_nodes": [],
              "categories_segments": [],
              "categories_sizes": [],
              "default_left": [
                0,
                0,
                0,
                0,
                0,
                0,
                0,
                0,
                0,
                0,
                0
              ],
              "id": 16,
              "left_children": [
                1,
                3,
                5,
                -1,
                7,
                -1,
                -1,
                9,
                -1,
                -1,
                -1
              ],
              "loss_changes": [
                0.19824418,
                0.058695674,
                0.086349174,
                0.0,
                0.024277521,
                0.0,
                0.0,
                0.04339836,
                0.0,
                0.0,
                0.0
              ],
              "parents": [
                2147483647,
                0,
                0,
                1,
                1,
                2,
                2,
                4,
                4,
                7,
                7
              ],
              "right_children": [
                2,
                4,
                6,
                -1,
                8,
                -1,
                -1,
                10,
                -1,
                -1,
                -1
              ],
              "split_conditions": [
                78000.0,
                -0.021978023,
                1969.0,
                -0.007453342,
                54.0,
                0.0002930211,
                0.0185879,
                20.0,
                0.0051862234,
                8.369104e-06,
                -0.0062442156
              ],
              "split_indices": [
                1,
                5,
                0,
                0,
                2,
                0,
                0,
                2,
                0,
                0,
                0
              ],
              "split_type": [
                0,
                0,
                0,
                0,
                0,
                0,
                0,
                0,
                0,
                0,
                0
              ],
              "sum_hessian": [
                44.0,
                42.0,
                2.0,
                2.0,
                40.0,
                1.0,
                1.0,
                39.0,
                1.0,
                37.0,
                2.0
              ],
              "tree_param": {
                "num_deleted": "0",
                "num_feature": "13",
                "num_nodes": "11",
                "size_leaf_vector": "1"
              }
            },
            {
              "base_weights": [
                0.0033380259,
                -0.013631274,
                0.24545199,
                -0.0072048977,
                -0.003752462,
                0.0002856956,
                0.018123204,
                -0.008902841,
                0.005056568,
                7.961661e-06,
                -0.0060360758
              ],
              "categories": [],
              "categories_nodes": [],
              "categories_segments": [],
              "categories_sizes": [],
              "default_left": [
                0,
                0,
                0,
                0,
                0,
                0,
                0,
                0,
                0,
                0,
                0
              ],
              "id": 17,
              "left_children": [
                1,
                3,
                5,
                -1,
                7,
                -1,
                -1,
                9,
                -1,
                -1,
                -1
              ],
              "loss_changes": [
                0.18822853,
                0.05488007,
                0.082085654,
                0.0,
                0.023048207,
                0.0,
                0.0,
                0.04055159,
                0.0,
                0.0,
                0.0
              ],
              "parents": [
                2147483647,
                0,
                0,
                1,
                1,
                2,
                2,
                4,
                4,
                7,
                7
              ],
              "right_children": [
                2,
                4,
                6,
                -1,
                8,
                -1,
                -1,
                10,
                -1,
                -1,
                -1
              ],
              "split_conditions": [
                78000.0,
                -0.021978023,
                1969.0,
                -0.0072048977,
                54.0,
                0.0002856956,
                0.018123204,
                20.0,
                0.005056568,
                7.961661e-06,
                -0.0060360758
              ],
              "split_indices": [
                1,
                5,
                0,
                0,
                2,
                0,
                0,
                2,
                0,
                0,
                0
              ],
              "split_type": [
                0,
                0,
                0,
                0,
                0,
                0,
                0,
                0,
                0,
                0,
                0
              ],
              "sum_hessian": [
                44.0,
                42.0,
                2.0,
                2.0,
                40.0,
                1.0,
                1.0,
                39.0,
                1.0,
                37.0,
                2.0
              ],
              "tree_param": {
                "num_deleted": "0",
                "num_feature": "13",
                "num_nodes": "11",
                "size_leaf_vector": "1"
              }
            },
            {
              "base_weights": [
                0.0033985127,
                -0.01313986,
                0.23931569,
                -0.0069647334,
                -0.0035885356,
                0.0002785532,
                0.017670123,
                -0.008608403,
                0.0049301535,
                7.5740545e-06,
                -0.0058348733
              ],
              "categories": [],
              "categories_nodes": [],
              "categories_segments": [],
              "categories_sizes": [],
              "default_left": [
                0,
                0,
                0,
                0,
                0,
                0,
                0,
                0,
                0,
                0,
                0
              ],
              "id": 18,
              "left_children": [
                1,
                3,
                5,
                -1,
                7,
                -1,
                -1,
                9,
                -1,
                -1,
                -1
              ],
              "loss_changes": [
                0.17872046,
                0.051312793,
                0.07803269,
                0.0,
                0.021881333,
                0.0,
                0.0,
                0.037891578,
                0.0,
                0.0,
                0.0
              ],
              "parents": [
                2147483647,
                0,
                0,
                1,
                1,
                2,
                2,
                4,
                4,
                7,
                7
              ],
              "right_children": [
                2,
                4,
                6,
                -1,
                8,
                -1,
                -1,
                10,
                -1,
                -1,
                -1
              ],
              "split_conditions": [
                78000.0,
                -0.021978023,
                1969.0,
                -0.0069647334,
                54.0,
                0.0002785532,
                0.017670123,
                20.0,
                0.0049301535,
                7.5740545e-06,
                -0.0058348733
              ],
              "split_indices": [
                1,
                5,
                0,
                0,
                2,
                0,
                0,
                2,
                0,
                0,
                0
              ],
              "split_type": [
                0,
                0,
                0,
                0,
                0,
                0,
                0,
                0,
                0,
                0,
                0
              ],
              "sum_hessian": [
                44.0,
                42.0,
                2.0,
                2.0,
                40.0,
                1.0,
                1.0,
                39.0,
                1.0,
                37.0,
                2.0
              ],
              "tree_param": {
                "num_deleted": "0",
                "num_feature": "13",
                "num_nodes": "11",
                "size_leaf_vector": "1"
              }
            },
            {
              "base_weights": [
                0.0034527387,
                -0.012665701,
                0.2333328,
                -0.13465153,
                -0.0034309898,
                0.00027158935,
                0.01722837,
                -0.0021332284,
                -0.007965636,
                -0.008323665,
                0.0048069,
                7.2053176e-06,
                -0.0056403773
              ],
              "categories": [],
              "categories_nodes": [],
              "categories_segments": [],
              "categories_sizes": [],
              "default_left": [
                0,
                0,
                0,
                0,
                0,
                0,
                0,
                0,
                0,
                0,
                0,
                0,
                0
              ],
              "id": 19,
              "left_children": [
                1,
                3,
                5,
                7,
                9,
                -1,
                -1,
                -1,
                -1,
                11,
                -1,
                -1,
                -1
              ],
              "loss_changes": [
                0.1696942,
                0.047977682,
                0.07417983,
                8.516014e-06,
                0.020773726,
                0.0,
                0.0,
                0.0,
                0.0,
                0.035406075,
                0.0,
                0.0,
                0.0
              ],
              "parents": [
                2147483647,
                0,
                0,
                1,
                1,
                2,
                2,
                3,
                3,
                4,
                4,
                9,
                9
              ],
              "right_children": [
                2,
                4,
                6,
                8,
                10,
                -1,
                -1,
                -1,
                -1,
                12,
                -1,
                -1,
                -1
              ],
              "split_conditions": [
                78000.0,
                -0.021978023,
                1969.0,
                1970.0,
                54.0,
                0.00027158935,
                0.01722837,
                -0.0021332284,
                -0.007965636,
                20.0,
                0.0048069,
                7.2053176e-06,
                -0.0056403773
              ],
              "split_indices": [
                1,
                5,
                0,
                0,
                2,
                0,
                0,
                0,
                0,
                2,
                0,
                0,
                0
              ],
              "split_type": [
                0,
                0,
                0,
                0,
                0,
                0,
                0,
                0,
                0,
                0,
                0,
                0,
                0
              ],
              "sum_hessian": [
                44.0,
                42.0,
                2.0,
                2.0,
                40.0,
                1.0,
                1.0,
                1.0,
                1.0,
                39.0,
                1.0,
                37.0,
                2.0
              ],
              "tree_param": {
                "num_deleted": "0",
                "num_feature": "13",
                "num_nodes": "13",
                "size_leaf_vector": "1"
              }
            },
            {
              "base_weights": [
                0.0034262093,
                -0.012286489,
                0.22749949,
                -0.13128524,
                -0.0032795938,
                0.00026479963,
                0.016797662,
                -0.0020798973,
                -0.007766495,
                -0.008048311,
                0.0046867277,
                6.854532e-06,
                -0.0054523647
              ],
              "categories": [],
              "categories_nodes": [],
              "categories_segments": [],
              "categories_sizes": [],
              "default_left": [
                0,
                0,
                0,
                0,
                0,
                0,
                0,
                0,
                0,
                0,
                0,
                0,
                0
              ],
              "id": 20,
              "left_children": [
                1,
                3,
                5,
                7,
                9,
                -1,
                -1,
                -1,
                -1,
                11,
                -1,
                -1,
                -1
              ],
              "loss_changes": [
                0.16123098,
                0.045657232,
                0.0705172,
                8.098781e-06,
                0.019722357,
                0.0,
                0.0,
                0.0,
                0.0,
                0.033083636,
                0.0,
                0.0,
                0.0
              ],
              "parents": [
                2147483647,
                0,
                0,
                1,
                1,
                2,
                2,
                3,
                3,
                4,
                4,
                9,
                9
              ],
              "right_children": [
                2,
                4,
                6,
                8,
                10,
                -1,
                -1,
                -1,
                -1,
                12,
                -1,
                -1,
                -1
              ],
              "split_conditions": [
                78000.0,
                -0.021978023,
                1969.0,
                1970.0,
                54.0,
                0.00026479963,
                0.016797662,
                -0.0020798973,
                -0.007766495,
                20.0,
                0.0046867277,
                6.854532e-06,
                -0.0054523647
              ],
              "split_indices": [
                1,
                5,
                0,
                0,
                2,
                0,
                0,
                0,
                0,
                2,
                0,
                0,
                0
              ],
              "split_type": [
                0,
                0,
                0,
                0,
                0,
                0,
                0,
                0,
                0,
                0,
                0,
                0,
                0
              ],
              "sum_hessian": [
                44.0,
                42.0,
                2.0,
                2.0,
                40.0,
                1.0,
                1.0,
                1.0,
                1.0,
                39.0,
                1.0,
                37.0,
                2.0
              ],
              "tree_param": {
                "num_deleted": "0",
                "num_feature": "13",
                "num_nodes": "13",
                "size_leaf_vector": "1"
              }
            },
            {
              "base_weights": [
                0.0033983947,
                -0.011918796,
                0.221812,
                -0.12800309,
                -0.003134121,
                0.0002581796,
                0.016377721,
                -0.0020278997,
                -0.007572332,
                -0.007782033,
                0.0045695594,
                6.5208246e-06,
                -0.0052706194
              ],
              "categories": [],
              "categories_nodes": [],
              "categories_segments": [],
              "categories_sizes": [],
              "default_left": [
                0,
                0,
                0,
                0,
                0,
                0,
                0,
                0,
                0,
                0,
                0,
                0,
                0
              ],
              "id": 21,
              "left_children": [
                1,
                3,
                5,
                7,
                9,
                -1,
                -1,
                -1,
                -1,
                11,
                -1,
                -1,
                -1
              ],
              "loss_changes": [
                0.15319045,
                0.043448623,
                0.06703542,
                7.69645e-06,
                0.018724367,
                0.0,
                0.0,
                0.0,
                0.0,
                0.030913556,
                0.0,
                0.0,
                0.0
              ],
              "parents": [
                2147483647,
                0,
                0,
                1,
                1,
                2,
                2,
                3,
                3,
                4,
                4,
                9,
                9
              ],
              "right_children": [
                2,
                4,
                6,
                8,
                10,
                -1,
                -1,
                -1,
                -1,
                12,
                -1,
                -1,
                -1
              ],
              "split_conditions": [
                78000.0,
                -0.021978023,
                1969.0,
                1970.0,
                54.0,
                0.0002581796,
                0.016377721,
                -0.0020278997,
                -0.007572332,
                20.0,
                0.0045695594,
                6.5208246e-06,
                -0.0052706194
              ],
              "split_indices": [
                1,
                5,
                0,
                0,
                2,
                0,
                0,
                0,
                0,
                2,
                0,
                0,
                0
              ],
              "split_type": [
                0,
                0,
                0,
                0,
                0,
                0,
                0,
                0,
                0,
                0,
                0,
                0,
                0
              ],
              "sum_hessian": [
                44.0,
                42.0,
                2.0,
                2.0,
                40.0,
                1.0,
                1.0,
                1.0,
                1.0,
                39.0,
                1.0,
                37.0,
                2.0
              ],
              "tree_param": {
                "num_deleted": "0",
                "num_feature": "13",
                "num_nodes": "13",
                "size_leaf_vector": "1"
              }
            },
            {
              "base_weights": [
                0.003369388,
                -0.01156227,
                0.21626669,
                -0.124803014,
                -0.002994355,
                0.00025172514,
                0.015968276,
                -0.0019772022,
                -0.007383024,
                -0.007524534,
                0.00445532,
                6.203363e-06,
                -0.005094932
              ],
              "categories": [],
              "categories_nodes": [],
              "categories_segments": [],
              "categories_sizes": [],
              "default_left": [
                0,
                0,
                0,
                0,
                0,
                0,
                0,
                0,
                0,
                0,
                0,
                0,
                0
              ],
              "id": 22,
              "left_children": [
                1,
                3,
                5,
                7,
                9,
                -1,
                -1,
                -1,
                -1,
                11,
                -1,
                -1,
                -1
              ],
              "loss_changes": [
                0.14555147,
                0.041346487,
                0.06372553,
                7.3201954e-06,
                0.017777035,
                0.0,
                0.0,
                0.0,
                0.0,
                0.028885838,
                0.0,
                0.0,
                0.0
              ],
              "parents": [
                2147483647,
                0,
                0,
                1,
                1,
                2,
                2,
                3,
                3,
                4,
                4,
                9,
                9
              ],
              "right_children": [
                2,
                4,
                6,
                8,
                10,
                -1,
                -1,
                -1,
                -1,
                12,
                -1,
                -1,
                -1
              ],
              "split_conditions": [
                78000.0,
                -0.021978023,
                1969.0,
                1970.0,
                54.0,
                0.00025172514,
                0.015968276,
                -0.0019772022,
                -0.007383024,
                20.0,
                0.00445532,
                6.203363e-06,
                -0.005094932
              ],
              "split_indices": [
                1,
                5,
                0,
                0,
                2,
                0,
                0,
                0,
                0,
                2,
                0,
                0,
                0
              ],
              "split_type": [
                0,
                0,
                0,
                0,
                0,
                0,
                0,
                0,
                0,
                0,
                0,
                0,
                0
              ],
              "sum_hessian": [
                44.0,
                42.0,
                2.0,
                2.0,
                40.0,
                1.0,
                1.0,
                1.0,
                1.0,
                39.0,
                1.0,
                37.0,
                2.0
              ],
              "tree_param": {
                "num_deleted": "0",
                "num_feature": "13",
                "num_nodes": "13",
                "size_leaf_vector": "1"
              }
            },
            {
              "base_weights": [
                0.0033392827,
                -0.011216567,
                0.21086003,
                -0.12168294,
                -0.0028600863,
                0.000245432,
                0.01556907,
                -0.0019277722,
                -0.0071984488,
                -0.007275526,
                0.0043439376,
                5.901357e-06,
                -0.004925101
              ],
              "categories": [],
              "categories_nodes": [],
              "categories_segments": [],
              "categories_sizes": [],
              "default_left": [
                0,
                0,
                0,
                0,
                0,
                0,
                0,
                0,
                0,
                0,
                0,
                0,
                0
              ],
              "id": 23,
              "left_children": [
                1,
                3,
                5,
                7,
                9,
                -1,
                -1,
                -1,
                -1,
                11,
                -1,
                -1,
                -1
              ],
              "loss_changes": [
                0.13829395,
                0.03934571,
                0.06057909,
                6.9588423e-06,
                0.01687778,
                0.0,
                0.0,
                0.0,
                0.0,
                0.026991142,
                0.0,
                0.0,
                0.0
              ],
              "parents": [
                2147483647,
                0,
                0,
                1,
                1,
                2,
                2,
                3,
                3,
                4,
                4,
                9,
                9
              ],
              "right_children": [
                2,
                4,
                6,
                8,
                10,
                -1,
                -1,
                -1,
                -1,
                12,
                -1,
                -1,
                -1
              ],
              "split_conditions": [
                78000.0,
                -0.021978023,
                1969.0,
                1970.0,
                54.0,
                0.000245432,
                0.01556907,
                -0.0019277722,
                -0.0071984488,
                20.0,
                0.0043439376,
                5.901357e-06,
                -0.004925101
              ],
              "split_indices": [
                1,
                5,
                0,
                0,
                2,
                0,
                0,
                0,
                0,
                2,
                0,
                0,
                0
              ],
              "split_type": [
                0,
                0,
                0,
                0,
                0,
                0,
                0,
                0,
                0,
                0,
                0,
                0,
                0
              ],
              "sum_hessian": [
                44.0,
                42.0,
                2.0,
                2.0,
                40.0,
                1.0,
                1.0,
                1.0,
                1.0,
                39.0,
                1.0,
                37.0,
                2.0
              ],
              "tree_param": {
                "num_deleted": "0",
                "num_feature": "13",
                "num_nodes": "13",
                "size_leaf_vector": "1"
              }
            },
            {
              "base_weights": [
                0.003308163,
                -0.010881354,
                0.20558852,
                -0.11864086,
                -0.0027311128,
                0.00023929619,
                0.015179843,
                -0.0018795778,
                -0.0070184874,
                -0.0070347292,
                0.004235339,
                5.614054e-06,
                -0.0047609312
              ],
              "categories": [],
              "categories_nodes": [],
              "categories_segments": [],
              "categories_sizes": [],
              "default_left": [
                0,
                0,
                0,
                0,
                0,
                0,
                0,
                0,
                0,
                0,
                0,
                0,
                0
              ],
              "id": 24,
              "left_children": [
                1,
                3,
                5,
                7,
                9,
                -1,
                -1,
                -1,
                -1,
                11,
                -1,
                -1,
                -1
              ],
              "loss_changes": [
                0.13139881,
                0.037441418,
                0.05758798,
                6.6123903e-06,
                0.016024154,
                0.0,
                0.0,
                0.0,
                0.0,
                0.025220737,
                0.0,
                0.0,
                0.0
              ],
              "parents": [
                2147483647,
                0,
                0,
                1,
                1,
                2,
                2,
                3,
                3,
                4,
                4,
                9,
                9
              ],
              "right_children": [
                2,
                4,
                6,
                8,
                10,
                -1,
                -1,
                -1,
                -1,
                12,
                -1,
                -1,
                -1
              ],
              "split_conditions": [
                78000.0,
                -0.021978023,
                1969.0,
                1970.0,
                54.0,
                0.00023929619,
                0.015179843,
                -0.0018795778,
                -0.0070184874,
                20.0,
                0.004235339,
                5.614054e-06,
                -0.0047609312
              ],
              "split_indices": [
                1,
                5,
                0,
                0,
                2,
                0,
                0,
                0,
                0,
                2,
                0,
                0,
                0
              ],
              "split_type": [
                0,
                0,
                0,
                0,
                0,
                0,
                0,
                0,
                0,
                0,
                0,
                0,
                0
              ],
              "sum_hessian": [
                44.0,
                42.0,
                2.0,
                2.0,
                40.0,
                1.0,
                1.0,
                1.0,
                1.0,
                39.0,
                1.0,
                37.0,
                2.0
              ],
              "tree_param": {
                "num_deleted": "0",
                "num_feature": "13",
                "num_nodes": "13",
                "size_leaf_vector": "1"
              }
            },
            {
              "base_weights": [
                0.0032761125,
                -0.01055631,
                0.2004488,
                -0.11567484,
                -0.0026072394,
                0.0002333138,
                0.014800346,
                -0.0018325885,
                -0.0068430244,
                -0.006801876,
                0.0041294554,
                5.340738e-06,
                -0.004602233
              ],
              "categories": [],
              "categories_nodes": [],
              "categories_segments": [],
              "categories_sizes": [],
              "default_left": [
                0,
                0,
                0,
                0,
                0,
                0,
                0,
                0,
                0,
                0,
                0,
                0,
                0
              ],
              "id": 25,
              "left_children": [
                1,
                3,
                5,
                7,
                9,
                -1,
                -1,
                -1,
                -1,
                11,
                -1,
                -1,
                -1
              ],
              "loss_changes": [
                0.12484791,
                0.035628974,
                0.05474457,
                6.28829e-06,
                0.015213836,
                0.0,
                0.0,
                0.0,
                0.0,
                0.023566473,
                0.0,
                0.0,
                0.0
              ],
              "parents": [
                2147483647,
                0,
                0,
                1,
                1,
                2,
                2,
                3,
                3,
                4,
                4,
                9,
                9
              ],
              "right_children": [
                2,
                4,
                6,
                8,
                10,
                -1,
                -1,
                -1,
                -1,
                12,
                -1,
                -1,
                -1
              ],
              "split_conditions": [
                78000.0,
                -0.021978023,
                1969.0,
                1970.0,
                54.0,
                0.0002333138,
                0.014800346,
                -0.0018325885,
                -0.0068430244,
                20.0,
                0.0041294554,
                5.340738e-06,
                -0.004602233
              ],
              "split_indices": [
                1,
                5,
                0,
                0,
                2,
                0,
                0,
                0,
                0,
                2,
                0,
                0,
                0
              ],
              "split_type": [
                0,
                0,
                0,
                0,
                0,
                0,
                0,
                0,
                0,
                0,
                0,
                0,
                0
              ],
              "sum_hessian": [
                44.0,
                42.0,
                2.0,
                2.0,
                40.0,
                1.0,
                1.0,
                1.0,
                1.0,
                39.0,
                1.0,
                37.0,
                2.0
              ],
              "tree_param": {
                "num_deleted": "0",
                "num_feature": "13",
                "num_nodes": "13",
                "size_leaf_vector": "1"
              }
            },
            {
              "base_weights": [
                0.003243209,
                -0.010241123,
                0.19543757,
                -0.11278296,
                -0.002488278,
                0.00022748094,
                0.014430337,
                -0.0017867737,
                -0.006671949,
                -0.006576704,
                0.004026219,
                5.080729e-06,
                -0.004448825
              ],
              "categories": [],
              "categories_nodes": [],
              "categories_segments": [],
              "categories_sizes": [],
              "default_left": [
                0,
                0,
                0,
                0,
                0,
                0,
                0,
                0,
                0,
                0,
                0,
                0,
                0
              ],
              "id": 26,
              "left_children": [
                1,
                3,
                5,
                7,
                9,
                -1,
                -1,
                -1,
                -1,
                11,
                -1,
                -1,
                -1
              ],
              "loss_changes": [
                0.11862406,
                0.03390398,
                0.052041568,
                5.9753656e-06,
                0.01444462,
                0.0,
                0.0,
                0.0,
                0.0,
                0.022020726,
                0.0,
                0.0,
                0.0
              ],
              "parents": [
                2147483647,
                0,
                0,
                1,
                1,
                2,
                2,
                3,
                3,
                4,
                4,
                9,
                9
              ],
              "right_children": [
                2,
                4,
                6,
                8,
                10,
                -1,
                -1,
                -1,
                -1,
                12,
                -1,
                -1,
                -1
              ],
              "split_conditions": [
                78000.0,
                -0.021978023,
                1969.0,
                1970.0,
                54.0,
                0.00022748094,
                0.014430337,
                -0.0017867737,
                -0.006671949,
                20.0,
                0.004026219,
                5.080729e-06,
                -0.004448825
              ],
              "split_indices": [
                1,
                5,
                0,
                0,
                2,
                0,
                0,
                0,
                0,
                2,
                0,
                0,
                0
              ],
              "split_type": [
                0,
                0,
                0,
                0,
                0,
                0,
                0,
                0,
                0,
                0,
                0,
                0,
                0
              ],
              "sum_hessian": [
                44.0,
                42.0,
                2.0,
                2.0,
                40.0,
                1.0,
                1.0,
                1.0,
                1.0,
                39.0,
                1.0,
                37.0,
                2.0
              ],
              "tree_param": {
                "num_deleted": "0",
                "num_feature": "13",
                "num_nodes": "13",
                "size_leaf_vector": "1"
              }
            },
            {
              "base_weights": [
                0.0032095276,
                -0.009935492,
                0.19055162,
                -0.109963395,
                -0.0023740474,
                0.00022179392,
                0.014069579,
                -0.0017421044,
                -0.0065051503,
                -0.006358962,
                0.0039255633,
                4.8333777e-06,
                -0.0043005305
              ],
              "categories": [],
              "categories_nodes": [],
              "categories_segments": [],
              "categories_sizes": [],
              "default_left": [
                0,
                0,
                0,
                0,
                0,
                0,
                0,
                0,
                0,
                0,
                0,
                0,
                0
              ],
              "id": 27,
              "left_children": [
                1,
                3,
                5,
                7,
                9,
                -1,
                -1,
                -1,
                -1,
                11,
                -1,
                -1,
                -1
              ],
              "loss_changes": [
                0.112710916,
                0.032262225,
                0.04947201,
                5.6810677e-06,
                0.013714414,
                0.0,
                0.0,
                0.0,
                0.0,
                0.020576376,
                0.0,
